-1.336245059967041016e+00 6.454519271850585938e+00 -1.668622374534606934e+00 -3.160966634750366211e+00 3.705067157745361328e+00 2.882608413696289062e+00 2.243413686752319336e+00 -2.914149314165115356e-02 -2.553630113601684570e+00 3.907100200653076172e+00 4.508588314056396484e+00 8.626972436904907227e-01 -2.996924638748168945e+00 -1.971560359001159668e+00 -4.584657669067382812e+00 8.505778312683105469e-01 1.848701357841491699e+00 7.853055000305175781e-01 -5.193992257118225098e-01 -4.637135028839111328e+00 -1.430769324302673340e+00 -4.533762454986572266e+00 -2.324550151824951172e+00 6.154221534729003906e+00 -1.167793478816747665e-02 -4.849324822425842285e-01 -1.557426005601882935e-01 8.820951581001281738e-01 -8.858313560485839844e-01 -4.037016868591308594e+00 -8.395593762397766113e-01 3.639458894729614258e+00 -3.167001008987426758e+00 -5.972234010696411133e-01 3.709121704101562500e+00 -4.875885009765625000e+00 2.855260133743286133e+00 4.863925650715827942e-02 3.367143630981445312e+00 2.400129288434982300e-01 -1.686309427022933960e-01 1.827692627906799316e+00 4.409167766571044922e+00 -4.847866058349609375e+00 -2.085150003433227539e+00 3.361494064331054688e+00 -1.830252170562744141e+00 4.871851801872253418e-01 -2.946448564529418945e+00 -8.523976206779479980e-01
3.397890567779541016e+00 -3.113415718078613281e+00 1.803100585937500000e+00 1.997431755065917969e+00 -7.438358306884765625e+00 -2.063064336776733398e+00 -1.278678655624389648e+00 2.703422307968139648e+00 -4.074727594852447510e-01 -4.173459529876708984e+00 -3.371337175369262695e+00 -2.852912902832031250e+00 4.576538503170013428e-01 3.855378627777099609e+00 4.595780849456787109e+00 -1.490800857543945312e+00 -4.270936846733093262e-01 5.330134391784667969e+00 2.436918735504150391e+00 1.011438369750976562e+01 1.418226122856140137e+00 9.170379042625427246e-01 2.161609411239624023e+00 -1.205895423889160156e+00 1.847386837005615234e+00 1.360945463180541992e+00 2.119808197021484375e+00 3.439033508300781250e+00 1.350470781326293945e+00 2.519262790679931641e+00 1.479136943817138672e+00 1.887785673141479492e+00 6.244933128356933594e+00 1.574253439903259277e+00 -4.137842655181884766e-01 -2.152707576751708984e-01 -3.693652153015136719e+00 1.418143957853317261e-01 3.411834537982940674e-01 -1.117127656936645508e+00 1.236823558807373047e+00 1.631733536720275879e+00 -3.939789056777954102e+00 3.337546288967132568e-01 1.869911193847656250e+00 -9.171977043151855469e+00 7.856142520904541016e-01 -4.287094116210937500e+00 -4.099458158016204834e-01 8.762362003326416016e-01
-1.758573651313781738e+00 2.079374790191650391e+00 9.725344181060791016e-01 5.981349945068359375e-01 3.364888668060302734e+00 -1.803971529006958008e-01 3.234144449234008789e+00 -1.563019633293151855e+00 -2.188486099243164062e+00 -7.780798673629760742e-01 -9.211227893829345703e-01 -2.998655080795288086e+00 1.602298617362976074e-01 3.650589227676391602e+00 -2.809282064437866211e+00 -1.020041346549987793e+00 -2.958519458770751953e+00 -1.580872058868408203e+00 -7.192489504814147949e-02 3.451100587844848633e-01 2.812642812728881836e+00 2.776008471846580505e-02 4.985885322093963623e-01 1.223894715309143066e+00 4.215795516967773438e+00 2.904650926589965820e+00 3.275855779647827148e+00 3.211123704910278320e+00 3.074409723281860352e+00 2.761878728866577148e+00 3.374714851379394531e+00 1.659412026405334473e+00 -2.314231634140014648e+00 1.033579945564270020e+00 -3.903751134872436523e+00 -3.345501899719238281e+00 -7.980806827545166016e-01 2.440655469894409180e+00 -1.173794984817504883e+00 4.481737613677978516e-01 5.567604899406433105e-01 -1.057256460189819336e+00 -5.495754718780517578e+00 8.125574588775634766e-01 8.199774026870727539e-01 1.961660742759704590e+00 -2.952270269393920898e+00 6.310484409332275391e-01 -2.517052412033081055e+00 2.078089952468872070e+00
-5.342399597167968750e+00 5.001815795898437500e+00 -1.543182373046875000e+00 3.924179553985595703e+00 -2.968078374862670898e+00 5.392111301422119141e+00 -1.296426534652709961e+00 -1.726498484611511230e+00 2.603804111480712891e+00 1.479188680648803711e+00 -7.821762084960937500e+00 8.339985609054565430e-01 4.859277606010437012e-02 -1.155510425567626953e+00 3.775391578674316406e+00 4.588872432708740234e+00 -1.406359195709228516e+00 -1.419958472251892090e+00 8.362370729446411133e-01 3.984615087509155273e+00 8.000092953443527222e-02 1.784283399581909180e+00 1.943255305290222168e+00 -3.119313716888427734e+00 2.132571458816528320e+00 1.544103145599365234e+00 -3.264896869659423828e-01 1.536123991012573242e+00 -3.916376352310180664e+00 -9.603068828582763672e-01 1.519060373306274414e+00 -1.480675339698791504e+00 -1.424858450889587402e+00 2.132616043090820312e+00 2.562329053878784180e+00 2.295836687088012695e+00 -8.472509384155273438e-01 -1.155457735061645508e+00 -2.161611557006835938e+00 -1.049698710441589355e+00 6.773297786712646484e-01 2.187972217798233032e-01 -5.167051553726196289e-01 -2.951876819133758545e-01 2.464130818843841553e-01 -1.905957937240600586e+00 4.716794967651367188e+00 1.085213661193847656e+00 -2.595392465591430664e+00 -3.043089628219604492e+00
-3.106421470642089844e+00 -4.557807445526123047e+00 -2.485303878784179688e+00 1.572616457939147949e+00 3.602024078369140625e+00 3.368891477584838867e+00 -2.849977731704711914e+00 -2.772955179214477539e+00 -7.101864814758300781e-01 2.029614210128784180e+00 -1.627518534660339355e+00 1.107916235923767090e+00 1.564252018928527832e+00 -1.568667769432067871e+00 5.655909776687622070e-01 -2.064963102340698242e+00 -9.454569220542907715e-01 -9.716410636901855469e-01 -2.080754280090332031e+00 8.978939652442932129e-01 3.375327587127685547e+00 -1.331639051437377930e+00 2.393140792846679688e+00 -3.948152065277099609e+00 2.491182535886764526e-01 4.686526298522949219e+00 1.021955132484436035e+00 3.283400774002075195e+00 1.742036819458007812e+00 2.488432526588439941e-01 -1.336368560791015625e+00 2.697778642177581787e-01 -3.732239484786987305e+00 -1.512343168258666992e+00 1.678075551986694336e+00 -3.535124063491821289e+00 1.154663413763046265e-01 4.202704429626464844e+00 3.662788629531860352e+00 -4.194742679595947266e+00 -1.616416454315185547e+00 -2.624424934387207031e+00 -1.448879241943359375e+00 -3.072985887527465820e+00 2.856083393096923828e+00 -1.448650479316711426e+00 2.973017454147338867e+00 1.563734374940395355e-02 -5.808627605438232422e+00 3.123377323150634766e+00
1.685463547706604004e+00 -2.156803131103515625e+00 1.902248859405517578e+00 -1.174082875251770020e+00 -4.204159259796142578e+00 -1.837082624435424805e+00 -2.397614955902099609e+00 -3.769822716712951660e-01 -9.533571004867553711e-01 1.719971895217895508e+00 -1.330512881278991699e+00 1.025205180048942566e-01 2.261743307113647461e+00 3.440188169479370117e+00 -1.891392350196838379e+00 -2.372394561767578125e+00 2.781181812286376953e+00 4.151165187358856201e-01 -9.242265820503234863e-01 2.230271339416503906e+00 2.144873857498168945e+00 3.090933799743652344e+00 2.601393222808837891e+00 -3.309552669525146484e+00 -1.737829566001892090e+00 -1.890001893043518066e+00 2.951305866241455078e+00 2.039594173431396484e+00 1.486909508705139160e+00 2.924463748931884766e+00 -4.321456909179687500e+00 1.011459827423095703e+00 2.701319932937622070e+00 -1.743652820587158203e-01 -1.492675185203552246e+00 3.856660604476928711e+00 -9.969750046730041504e-01 6.954498887062072754e-01 5.604421496391296387e-01 -2.745478630065917969e+00 2.023760676383972168e-01 4.042820453643798828e+00 -4.372000217437744141e+00 3.681597471237182617e+00 8.318127393722534180e-01 -4.354370117187500000e+00 -3.398903846740722656e+00 -9.124562740325927734e-01 3.931641578674316406e-01 2.885933637619018555e+00
1.853242874145507812e+00 3.065808296203613281e+00 1.591728478670120239e-01 -2.199718236923217773e+00 -1.405387043952941895e+00 9.174330830574035645e-01 3.380214691162109375e+00 3.984795331954956055e+00 6.327829957008361816e-01 -3.084157466888427734e+00 2.404813051223754883e+00 4.264583587646484375e+00 -8.046631217002868652e-01 1.398823857307434082e+00 -4.338348805904388428e-01 -1.835787296295166016e+00 -2.282479286193847656e+00 1.674282550811767578e+00 -5.067590236663818359e+00 -2.089011296629905701e-02 1.748533606529235840e+00 1.029017448425292969e+00 -3.367530345916748047e+00 -1.971982955932617188e+00 9.423738718032836914e-01 -2.517674207687377930e+00 -2.777690410614013672e+00 -1.161154031753540039e+00 1.518754243850708008e+00 -3.669309139251708984e+00 -2.629417657852172852e+00 -2.875593662261962891e+00 2.489007949829101562e+00 3.884245157241821289e+00 -3.287298977375030518e-01 1.553295850753784180e+00 1.094402596354484558e-01 -2.370983600616455078e+00 -7.628059983253479004e-01 2.018488645553588867e+00 -2.566292285919189453e-01 1.660531401634216309e+00 -2.210889339447021484e+00 -1.566431999206542969e+00 1.807208061218261719e+00 -2.806931495666503906e+00 -2.871347665786743164e+00 -1.537970423698425293e+00 2.567410282790660858e-02 1.492043972015380859e+00
-2.535376548767089844e+00 -1.391875743865966797e+00 4.741854190826416016e+00 3.037123203277587891e+00 8.849808573722839355e-01 2.915210962295532227e+00 6.238067746162414551e-01 -7.621316909790039062e-01 1.457891345024108887e+00 -3.056535959243774414e+00 -1.070620179176330566e+00 1.983626127243041992e+00 -8.658702373504638672e-01 9.872754812240600586e-01 8.565383404493331909e-02 -3.858642280101776123e-01 3.493635654449462891e+00 2.232245922088623047e+00 -1.416461229324340820e+00 -4.645955860614776611e-01 -3.400791883468627930e-01 -3.697798728942871094e+00 -1.980732232332229614e-01 2.728263616561889648e+00 -3.180991709232330322e-01 -7.104496955871582031e+00 4.048148393630981445e-01 -1.010886907577514648e+00 -5.812782049179077148e-01 -2.242996215820312500e+00 8.268545866012573242e-01 -2.789128780364990234e+00 -1.612917304039001465e+00 -1.886764526367187500e+00 -1.563732743263244629e+00 -1.076871991157531738e+00 4.610254764556884766e+00 -3.550665140151977539e+00 1.637616991996765137e+00 2.150007486343383789e+00 1.009886264801025391e+00 -3.293416649103164673e-02 1.462788820266723633e+00 2.286205440759658813e-02 -1.785097956657409668e+00 -2.903797626495361328e-01 5.341286659240722656e-01 -1.224445939064025879e+00 1.844172924757003784e-01 -2.479990482330322266e+00
-1.033744215965270996e+00 4.341541767120361328e+00 -4.103539943695068359e+00 -1.993990421295166016e+00 6.968144774436950684e-01 -2.032645702362060547e+00 6.149938106536865234e-01 -1.891409873962402344e+00 1.853074193000793457e+00 1.206663474440574646e-01 -1.314572572708129883e+00 -1.117585539817810059e+00 -1.171760439872741699e+00 -1.322960615158081055e+00 -4.945041537284851074e-01 -9.774727821350097656e-01 9.577915668487548828e-01 3.256603717803955078e+00 -3.792040586471557617e+00 -1.189528942108154297e+00 4.132607579231262207e-01 6.804190874099731445e-01 4.351786136627197266e+00 -6.590985693037509918e-03 -3.322690248489379883e+00 1.570208191871643066e+00 6.605757474899291992e-01 2.076160430908203125e+00 1.157926201820373535e+00 1.614290118217468262e+00 -1.274010062217712402e+00 1.311216115951538086e+00 -4.864758968353271484e+00 -3.767964363098144531e+00 -9.641436934471130371e-01 -2.822050750255584717e-01 -2.445313930511474609e-01 3.264894723892211914e+00 -5.486848354339599609e+00 1.401893496513366699e-01 4.114350304007530212e-02 1.137693375349044800e-01 3.189455270767211914e-01 1.702306628227233887e+00 1.152841091156005859e+00 2.324435710906982422e+00 -1.100819230079650879e+00 -1.302699685096740723e+00 2.062475442886352539e+00 -1.846199393272399902e+00
-2.871318340301513672e+00 -4.404860019683837891e+00 4.459852695465087891e+00 7.096968293190002441e-01 -3.069297075271606445e+00 -3.029103994369506836e+00 5.884573459625244141e-01 1.310250759124755859e-01 1.415762066841125488e+00 1.609189987182617188e+00 2.130913972854614258e+00 -2.515208959579467773e+00 3.473360836505889893e-01 -2.697618484497070312e+00 -2.506220102310180664e+00 9.650686979293823242e-01 -1.430862188339233398e+00 8.078292012214660645e-01 -5.757133960723876953e-01 -1.128970384597778320e+00 4.320321559906005859e+00 6.895932555198669434e-01 -5.188875675201416016e+00 3.904396533966064453e+00 6.505652904510498047e+00 1.387027651071548462e-01 -1.669520854949951172e+00 -1.507908999919891357e-01 6.665361523628234863e-01 9.994854927062988281e-01 -2.281199455261230469e+00 1.520216941833496094e+00 -6.351324915885925293e-01 2.658559978008270264e-01 -5.013428688049316406e+00 -1.824677228927612305e+00 -4.469771385192871094e+00 -2.266925334930419922e+00 -1.877991318702697754e+00 4.336989402770996094e+00 -9.516006708145141602e-01 7.998744845390319824e-01 -1.819002032279968262e+00 -6.689659953117370605e-01 5.677318572998046875e-01 1.153884887695312500e+00 -2.024390697479248047e+00 -2.772956132888793945e+00 2.398520231246948242e+00 3.594585657119750977e-01
-1.208648800849914551e+00 -5.714601039886474609e+00 -3.974843919277191162e-01 1.831014156341552734e+00 6.258505582809448242e-01 -1.180581092834472656e+00 8.943139314651489258e-01 -7.501534819602966309e-01 -1.173434019088745117e+00 1.522984623908996582e+00 5.761290073394775391e+00 -5.938514232635498047e+00 3.119450569152832031e+00 3.319243431091308594e+00 4.098214805126190186e-01 -1.423466801643371582e+00 -3.718590974807739258e+00 -5.581464171409606934e-01 1.937178969383239746e+00 4.203371524810791016e+00 4.765833169221878052e-02 8.165504932403564453e-01 -8.732593804597854614e-02 3.429206609725952148e-01 4.484955787658691406e+00 4.299057275056838989e-02 -3.133906602859497070e+00 1.248612165451049805e+00 1.209905818104743958e-01 -2.285988092422485352e+00 2.549808263778686523e+00 1.023090362548828125e+00 2.329868316650390625e+00 -3.695630729198455811e-01 -2.296835184097290039e+00 -1.141457557678222656e+00 -4.471254944801330566e-01 -2.640734195709228516e+00 -1.396079778671264648e+00 -3.144965410232543945e+00 -9.310057759284973145e-01 -1.118080615997314453e+00 -2.935439586639404297e+00 -1.740086078643798828e+00 5.544764399528503418e-01 -3.172034978866577148e+00 -1.563705444335937500e+00 -2.305619001388549805e+00 -3.329218387603759766e+00 -3.448196887969970703e+00
2.337995290756225586e+00 -3.627758026123046875e+00 -1.411768198013305664e+00 -3.236069083213806152e-01 -3.617083072662353516e+00 -3.446666955947875977e+00 -1.966621398925781250e+00 -1.018019914627075195e+00 1.316084027290344238e+00 -1.920450925827026367e+00 -1.530010581016540527e+00 -5.324364900588989258e-01 -2.350455999374389648e+00 2.470552325248718262e-01 3.117129564285278320e+00 -2.834506273269653320e+00 -2.389452695846557617e+00 -4.825305938720703125e-01 5.652634501457214355e-01 1.922466039657592773e+00 -1.983972549438476562e+00 2.601570844650268555e+00 1.744292497634887695e+00 -2.359660625457763672e+00 5.797441601753234863e-01 2.877022266387939453e+00 1.249189615249633789e+00 5.319206118583679199e-01 9.501690268516540527e-01 2.650561094284057617e+00 3.730098605155944824e-01 1.197535872459411621e+00 3.199499607086181641e+00 2.383381128311157227e+00 2.087356090545654297e+00 3.867992877960205078e+00 -8.256607055664062500e+00 -1.513019084930419922e+00 6.444566249847412109e-01 1.915657639503479004e+00 -2.537935018539428711e+00 -5.264413356781005859e-01 -4.812947809696197510e-01 -1.777681231498718262e+00 -3.534311056137084961e+00 -3.917861223220825195e+00 -3.269221067428588867e+00 -5.021254539489746094e+00 2.473652839660644531e+00 4.444831371307373047e+00
2.629437744617462158e-01 -4.118471741676330566e-01 -3.804947137832641602e+00 -1.231071352958679199e+00 1.128919363021850586e+00 4.256303012371063232e-01 2.256618976593017578e+00 4.757246494293212891e+00 7.830798625946044922e-01 4.871619641780853271e-01 -1.086565852165222168e+00 2.397152662277221680e+00 2.042786598205566406e+00 5.469767093658447266e+00 3.429357409477233887e-01 4.591070652008056641e+00 -2.552305698394775391e+00 2.821460962295532227e+00 -1.577565193176269531e+00 -1.451050877571105957e+00 -2.428280353546142578e+00 5.938374996185302734e+00 -1.684586405754089355e+00 3.291077852249145508e+00 -4.067531585693359375e+00 -1.396022558212280273e+00 3.565862178802490234e+00 3.651509284973144531e+00 -5.279545307159423828e+00 -2.756154775619506836e+00 2.263636589050292969e+00 -2.611782073974609375e+00 -9.869813323020935059e-01 -1.664971590042114258e+00 4.177882075309753418e-01 3.430316209793090820e+00 1.256214976310729980e+00 3.116397187113761902e-03 3.279912948608398438e+00 3.247646570205688477e+00 2.281874418258666992e+00 -4.892146289348602295e-01 3.924448728561401367e+00 -1.290346741676330566e+00 5.733003020286560059e-01 5.342737436294555664e-01 -1.506480932235717773e+00 3.608016014099121094e+00 -2.567379474639892578e-01 -3.222027778625488281e+00
3.591939687728881836e+00 4.261907100677490234e+00 3.045291662216186523e+00 -1.620371580123901367e+00 1.187940120697021484e+00 1.208878874778747559e+00 -2.030907392501831055e+00 4.479473590850830078e+00 -2.104311943054199219e+00 -2.998738527297973633e+00 -1.770093679428100586e+00 1.445546030998229980e+00 -2.676727771759033203e+00 -6.778123974800109863e-01 -1.796314239501953125e+00 -1.708076119422912598e+00 1.459888815879821777e+00 -7.377235889434814453e-01 2.230961084365844727e+00 -1.708953976631164551e+00 -2.805667161941528320e+00 1.911371707916259766e+00 4.502273559570312500e+00 -1.506770253181457520e+00 -1.710036993026733398e+00 -1.899934411048889160e+00 -5.035530567169189453e+00 1.288657665252685547e+00 -8.042382597923278809e-01 -1.717980742454528809e+00 -3.445264697074890137e-01 -4.479448795318603516e-01 3.924708127975463867e+00 -1.663145273923873901e-01 -1.774223923683166504e+00 2.217107295989990234e+00 5.540103912353515625e+00 -9.756343364715576172e-01 2.994170427322387695e+00 3.854411602020263672e+00 -2.171772241592407227e+00 -3.406645536422729492e+00 2.197938442230224609e+00 1.700446605682373047e+00 -1.948750734329223633e+00 1.988012641668319702e-01 -2.227197408676147461e+00 4.757937431335449219e+00 2.479351758956909180e+00 -2.057838916778564453e+00
3.732255220413208008e+00 4.314448356628417969e+00 2.619747817516326904e-01 2.406936407089233398e+00 8.465868234634399414e-02 -3.203561305999755859e+00 1.102822065353393555e+00 2.738823294639587402e-01 -2.400411479175090790e-02 6.121857166290283203e-01 -5.458579063415527344e-01 4.577105998992919922e+00 -2.369631052017211914e+00 1.744980812072753906e+00 -8.771792650222778320e-01 -3.538401126861572266e-01 -9.080403447151184082e-01 3.663837671279907227e+00 -3.261250555515289307e-01 -4.392995834350585938e+00 1.525072567164897919e-02 1.459792256355285645e+00 2.299760133028030396e-01 -1.761470675468444824e+00 -2.391379624605178833e-01 -3.689048290252685547e+00 4.708842933177947998e-01 -3.645137548446655273e-01 -2.774432897567749023e+00 1.868235170841217041e-01 -2.026610136032104492e+00 -3.320317506790161133e+00 -2.264819383621215820e+00 -2.507681027054786682e-02 1.535731792449951172e+00 -1.122850298881530762e+00 5.248383045196533203e+00 -6.683994531631469727e-01 1.073078587651252747e-01 4.120242595672607422e+00 2.484547615051269531e+00 -7.791229486465454102e-01 -9.785468131303787231e-02 -2.412691563367843628e-01 -8.187864422798156738e-01 6.391161441802978516e+00 -2.211220502853393555e+00 -3.673949480056762695e+00 2.952962554991245270e-02 2.852381944656372070e+00
-3.930239200592041016e+00 2.586404561996459961e+00 -6.590695977210998535e-01 1.231802225112915039e+00 1.900012016296386719e+00 -1.096782445907592773e+00 -3.849523544311523438e+00 1.126951724290847778e-01 1.005768418312072754e+00 1.163683414459228516e+00 -1.915841817855834961e+00 -2.174119949340820312e+00 2.297959327697753906e+00 1.032629489898681641e+00 -4.176441669464111328e+00 -3.785101413726806641e+00 -1.918484568595886230e+00 1.807287335395812988e+00 -1.435213446617126465e+00 4.895720481872558594e+00 -7.100271582603454590e-01 2.882341384887695312e+00 1.533780694007873535e+00 3.889892399311065674e-01 6.831055283546447754e-01 -1.616455674171447754e+00 3.837711572647094727e+00 -1.048387527465820312e+00 3.064622402191162109e+00 -9.707105159759521484e-01 -4.794872283935546875e+00 -1.695058345794677734e+00 -5.560579895973205566e-02 9.649504423141479492e-01 -5.220398902893066406e-01 3.421355009078979492e+00 3.419068336486816406e+00 1.675437241792678833e-01 -7.175995707511901855e-01 1.318380951881408691e+00 1.164095997810363770e+00 2.269961595535278320e+00 -3.201534271240234375e+00 3.220819234848022461e+00 -2.636953115463256836e+00 -1.679510712623596191e+00 1.001023426651954651e-01 2.234770953655242920e-01 -2.776169776916503906e+00 1.389775633811950684e+00
-2.786017417907714844e+00 -5.687754154205322266e-01 8.967007994651794434e-01 9.223830103874206543e-01 -1.946684360504150391e+00 3.325751543045043945e+00 -8.275508284568786621e-01 4.925047159194946289e-01 1.097920656204223633e+00 -1.278999805450439453e+00 1.878249645233154297e+00 -1.668935775756835938e+00 4.000359535217285156e+00 -7.902672141790390015e-02 -3.284836292266845703e+00 -2.671848297119140625e+00 7.334193587303161621e-01 9.285614967346191406e+00 -4.864443838596343994e-01 6.566205501556396484e+00 -4.097698211669921875e+00 2.696633338928222656e+00 2.760125398635864258e+00 -4.151249408721923828e+00 -1.067380607128143311e-01 9.537507295608520508e-01 1.435315966606140137e+00 3.595216274261474609e+00 3.873013257980346680e+00 2.519431114196777344e+00 2.629029750823974609e+00 1.220370903611183167e-01 -9.544789195060729980e-01 -9.925489425659179688e-01 -6.946905851364135742e-01 1.299421787261962891e+00 -3.690314292907714844e+00 1.151277944445610046e-01 -1.529478430747985840e+00 -3.614018857479095459e-01 1.041520118713378906e+00 1.644077897071838379e+00 -3.158166408538818359e+00 2.175353527069091797e+00 1.404303789138793945e+00 -2.118816137313842773e+00 -3.218703508377075195e+00 -1.928824424743652344e+00 5.384093523025512695e-01 8.876535892486572266e-01
-4.644633769989013672e+00 -1.960574388504028320e-01 2.241782903671264648e+00 9.172738194465637207e-01 -1.315655112266540527e+00 1.121706962585449219e+00 1.658266067504882812e+00 -2.756482124328613281e+00 4.065807163715362549e-01 -8.040793985128402710e-02 3.419010162353515625e+00 -2.570848941802978516e+00 2.756435982882976532e-02 3.678232431411743164e+00 1.958257053047418594e-03 1.820677638053894043e+00 -8.945079892873764038e-02 1.455912142992019653e-01 -3.048557996749877930e+00 4.138379573822021484e+00 5.695991992950439453e+00 1.565222263336181641e+00 3.168030381202697754e-01 2.571128129959106445e+00 -5.355596542358398438e-01 7.111479640007019043e-01 2.771820783615112305e+00 3.865383386611938477e+00 1.838378667831420898e+00 4.289248466491699219e+00 1.405224800109863281e+00 9.444717764854431152e-01 -4.789406359195709229e-01 7.975445389747619629e-01 -1.073793649673461914e+00 1.719592332839965820e+00 -4.516704559326171875e+00 1.484313607215881348e+00 -2.423896640539169312e-01 5.723338127136230469e-01 -2.808252334594726562e+00 2.921108007431030273e+00 -3.306634664535522461e+00 -3.141038179397583008e+00 -2.622622728347778320e+00 -1.942541837692260742e+00 -1.922665350139141083e-02 -8.348701000213623047e-01 7.302025318145751953e+00 5.325041294097900391e+00
2.527099132537841797e+00 3.451099872589111328e+00 1.237987279891967773e+00 -3.654567003250122070e+00 -4.220086574554443359e+00 2.006722927093505859e+00 -3.409160137176513672e+00 1.115720629692077637e+00 -5.574726462364196777e-01 -7.039690613746643066e-01 -4.080391883850097656e+00 8.968342542648315430e-01 -3.851983070373535156e+00 -1.881494820117950439e-01 5.548359751701354980e-01 -1.837101221084594727e+00 6.029551029205322266e+00 2.540770292282104492e+00 -1.679816961288452148e+00 -5.153779387474060059e-01 1.252152800559997559e+00 -1.633894324302673340e+00 4.266350269317626953e+00 -3.434025868773460388e-02 2.536061108112335205e-01 -3.321392536163330078e+00 1.268445611000061035e+00 7.400919198989868164e-01 -3.044119775295257568e-01 -3.451166629791259766e+00 -1.769360542297363281e+00 -6.080539703369140625e+00 1.597476720809936523e+00 5.587687492370605469e+00 2.262090682983398438e+00 -2.638449430465698242e+00 -5.079921483993530273e-01 -1.228109970688819885e-01 1.431238293647766113e+00 1.862697601318359375e+00 -7.180809378623962402e-01 -1.420241117477416992e+00 -1.322732806205749512e+00 3.303281784057617188e+00 -8.650652170181274414e-01 3.078543424606323242e+00 -4.133935868740081787e-01 1.748349219560623169e-01 -1.309073567390441895e+00 -2.005032777786254883e+00
-3.817906141281127930e+00 -6.887655735015869141e+00 4.601718187332153320e-01 -2.745157957077026367e+00 6.811866164207458496e-01 -9.685543775558471680e-01 1.741911649703979492e+00 -3.048742532730102539e+00 2.001718282699584961e-01 1.039172768592834473e+00 5.957778453826904297e+00 -3.337779045104980469e+00 -4.881996214389801025e-01 1.690136909484863281e+00 -1.619583964347839355e+00 1.591141104698181152e+00 -3.034539461135864258e+00 -2.023979902267456055e+00 5.085680007934570312e+00 1.152685046195983887e+00 -2.343945264816284180e+00 -1.725161671638488770e+00 2.173643827438354492e+00 -4.872957468032836914e-01 2.167896986007690430e+00 -1.239217042922973633e+00 8.811606168746948242e-01 -1.318048119544982910e+00 4.578680992126464844e+00 2.094426870346069336e+00 -1.253859877586364746e+00 2.368730545043945312e+00 -3.296809673309326172e+00 -1.837610602378845215e+00 -3.307371616363525391e+00 -1.882727622985839844e+00 -3.000657856464385986e-01 1.863253235816955566e+00 1.869636893272399902e+00 -1.312372326850891113e+00 -1.449193239212036133e+00 -9.637089967727661133e-01 8.330501914024353027e-01 -3.167949199676513672e+00 2.466624259948730469e+00 -2.335607051849365234e+00 1.779893159866333008e+00 -2.958349943161010742e+00 -2.475671291351318359e+00 -4.068761765956878662e-01
1.306799292564392090e+00 -5.467679977416992188e+00 -1.280026078224182129e+00 1.985297441482543945e+00 1.434759736061096191e+00 -1.484035491943359375e+00 2.198087692260742188e+00 -1.141515731811523438e+00 -3.457807540893554688e+00 1.184641242027282715e+00 2.300393581390380859e+00 -9.233673214912414551e-01 -1.929108619689941406e+00 -1.221983909606933594e+00 -3.620406389236450195e+00 -9.750550985336303711e-01 -8.419968187808990479e-02 -4.769835948944091797e+00 3.939071595668792725e-01 -2.990607023239135742e+00 2.605768740177154541e-01 -1.317324280738830566e+00 -4.782800197601318359e+00 1.467809200286865234e+00 1.541084766387939453e+00 -3.585831224918365479e-01 -2.401691436767578125e+00 1.429670691490173340e+00 7.601362466812133789e-01 2.258032321929931641e+00 1.182163476943969727e+00 -3.078659534454345703e+00 -1.180067539215087891e+00 -5.259866714477539062e-01 2.824289202690124512e-01 -4.814043045043945312e-01 1.170878186821937561e-01 -1.685084342956542969e+00 -8.826147913932800293e-01 -3.512661218643188477e+00 1.543967485427856445e+00 3.400946408510208130e-02 -1.711373448371887207e+00 2.796213030815124512e-01 6.263432979583740234e+00 1.110555291175842285e+00 3.542932033538818359e+00 -2.175787448883056641e+00 -3.089057445526123047e+00 5.905237197875976562e-01
8.567640781402587891e-01 -2.601977109909057617e+00 2.276101350784301758e+00 2.370635509490966797e+00 -1.042480170726776123e-01 -1.915614366531372070e+00 -8.842256665229797363e-02 -2.460692226886749268e-01 4.339724540710449219e+00 7.510223984718322754e-02 -1.475366592407226562e+00 1.370913505554199219e+00 2.118888050317764282e-01 5.646930336952209473e-01 2.918876409530639648e+00 -6.692684292793273926e-01 -1.741391420364379883e+00 1.288566142320632935e-01 -2.870056390762329102e+00 1.095348596572875977e+00 4.836502671241760254e-02 1.569778084754943848e+00 2.781476974487304688e+00 -6.425344944000244141e-01 -2.074918031692504883e+00 5.830774307250976562e-01 -8.364711701869964600e-02 -1.332513570785522461e+00 -1.564193606376647949e+00 1.525481343269348145e+00 1.303535819053649902e+00 3.411242485046386719e+00 1.574994683265686035e+00 -4.387649893760681152e-01 1.177831530570983887e+00 2.261008173227310181e-01 1.044255852699279785e+00 6.758404374122619629e-01 9.352176189422607422e-01 8.016333729028701782e-02 -4.001640319824218750e+00 1.050729274749755859e+00 7.384115457534790039e-01 -2.051415741443634033e-01 2.426183700561523438e+00 -4.721122264862060547e+00 8.072249293327331543e-01 -2.119459867477416992e+00 1.389160990715026855e+00 3.201525449752807617e+00
-1.914923071861267090e+00 -1.055979132652282715e+00 -6.010173559188842773e-01 8.833096623420715332e-01 1.800519227981567383e+00 1.233882665634155273e+00 -1.979249715805053711e-01 1.970118433237075806e-01 -1.244980692863464355e+00 5.011412143707275391e+00 -1.473102569580078125e+00 -5.910505652427673340e-01 -3.738827228546142578e+00 -2.558144330978393555e+00 4.781974792480468750e+00 -1.257769584655761719e+00 2.159992694854736328e+00 1.292137980461120605e+00 1.726071000099182129e+00 4.601820409297943115e-01 -2.746572494506835938e-01 3.167936205863952637e-01 -1.948566436767578125e+00 3.871349334716796875e+00 2.864262104034423828e+00 9.575537443161010742e-01 -1.354961752891540527e+00 -1.881093502044677734e+00 -4.010091781616210938e+00 -2.593544006347656250e+00 1.023364543914794922e+00 -1.321651458740234375e+00 4.737436473369598389e-01 -2.339626662433147430e-02 1.834878325462341309e+00 -1.409887671470642090e+00 2.318862199783325195e+00 6.810678243637084961e-01 4.349556565284729004e-01 -1.139672279357910156e+00 -2.359493017196655273e+00 -1.889139533042907715e+00 3.510382771492004395e-01 9.905366897583007812e-01 3.477559089660644531e+00 4.002186775207519531e+00 -3.625427484512329102e+00 -1.292519569396972656e+00 -1.509351283311843872e-01 2.938398838043212891e+00
5.250713974237442017e-02 -4.702702522277832031e+00 5.910644531250000000e+00 -3.400467157363891602e+00 -2.198946177959442139e-01 1.902136564254760742e+00 -3.109297156333923340e-01 3.988158941268920898e+00 -1.695544421672821045e-01 -3.175884723663330078e+00 -1.373473256826400757e-01 -5.349646568298339844e+00 4.072294235229492188e+00 -1.273611307144165039e+00 3.829760789871215820e+00 2.414529800415039062e+00 1.262330770492553711e+00 3.035507678985595703e+00 -8.570218086242675781e-01 3.524601697921752930e+00 6.064646840095520020e-01 3.038899898529052734e+00 3.311273813247680664e+00 1.858779191970825195e+00 -6.448798775672912598e-01 1.388470411300659180e+00 -1.132438540458679199e+00 1.443267583847045898e+00 4.570201396942138672e+00 3.878620147705078125e+00 -3.706233501434326172e-01 -3.550510108470916748e-01 -1.060881257057189941e+00 5.461571216583251953e-01 2.249769210815429688e+00 1.364934444427490234e+00 -3.741520404815673828e+00 3.855442285537719727e+00 1.902952075004577637e+00 6.089681759476661682e-02 8.531236648559570312e-01 -1.591739296913146973e+00 -2.878112554550170898e+00 3.965306043624877930e+00 -1.779823064804077148e+00 3.065448284149169922e+00 9.470219016075134277e-01 -6.800414323806762695e-01 1.782331243157386780e-02 -2.426383972167968750e+00
-1.873038053512573242e+00 -1.694526553153991699e+00 3.107152223587036133e+00 5.354395508766174316e-01 -1.310122162103652954e-01 -1.938636660575866699e+00 4.189210891723632812e+00 -4.596944451332092285e-01 -8.200920820236206055e-01 -6.749210357666015625e-01 -3.410622119903564453e+00 4.284162223339080811e-01 -2.076719284057617188e+00 4.925519227981567383e-01 -6.601241230964660645e-01 1.181894183158874512e+00 3.241207361221313477e+00 8.129887282848358154e-02 2.040691614151000977e+00 -8.619425892829895020e-01 2.512542247772216797e+00 -1.721336126327514648e+00 -1.246318578720092773e+00 -4.804945945739746094e+00 1.890107154846191406e+00 -1.136210680007934570e+00 -4.675947129726409912e-01 1.271101713180541992e+00 -1.957770347595214844e+00 8.865933418273925781e-01 -2.856117963790893555e+00 2.415614843368530273e+00 -4.523337364196777344e+00 3.542575120925903320e+00 -1.936305463314056396e-01 9.998883008956909180e-01 -3.519645452499389648e+00 1.248229026794433594e+00 1.861667513847351074e+00 2.307786703109741211e+00 -2.864566743373870850e-01 1.120311859995126724e-02 -2.907027959823608398e+00 -2.730936527252197266e+00 1.862239480018615723e+00 -2.594716846942901611e-01 -5.150844097137451172e+00 1.226868629455566406e+00 5.248471498489379883e-01 2.826292276382446289e+00
-3.468828678131103516e+00 -5.207545757293701172e+00 -1.524773359298706055e+00 -1.716606616973876953e+00 -4.696657415479421616e-04 -1.859729647636413574e+00 8.703468739986419678e-02 4.489432811737060547e+00 1.325126767158508301e+00 8.917987942695617676e-01 1.967755436897277832e+00 -2.626332283020019531e+00 -1.964316129684448242e+00 -8.009323477745056152e-02 -5.065948963165283203e-01 6.907605379819869995e-02 2.673513174057006836e+00 2.084033340215682983e-01 1.023946285247802734e+00 1.517928242683410645e+00 3.998940229415893555e+00 -3.618459776043891907e-02 -3.358088970184326172e+00 5.949914455413818359e+00 -1.422314792871475220e-01 -6.076360344886779785e-01 1.284500002861022949e+00 -8.445655107498168945e-01 1.248776435852050781e+00 8.467878103256225586e-01 -5.489532351493835449e-01 1.008893728256225586e+00 -6.168824672698974609e+00 -3.169493913650512695e+00 -9.108296632766723633e-01 8.580489158630371094e-01 -4.638947486877441406e+00 1.904567718505859375e+00 1.147768020629882812e+00 2.716729402542114258e+00 -1.293702721595764160e-01 -2.263273715972900391e+00 2.306168079376220703e+00 1.909105181694030762e+00 6.680543422698974609e-01 1.680117249488830566e+00 1.052245497703552246e+00 -2.831304073333740234e-02 -1.723631858825683594e+00 -2.673443794250488281e+00
5.603274703025817871e-01 -2.567693710327148438e+00 3.078503847122192383e+00 -9.463815093040466309e-01 2.238322019577026367e+00 -1.262206912040710449e+00 -3.204553365707397461e+00 -2.834949254989624023e+00 1.825708150863647461e+00 2.278813570737838745e-01 2.482869386672973633e+00 -1.303820490837097168e+00 2.604982852935791016e+00 -9.302824735641479492e-01 -2.508252263069152832e-01 -2.705519437789916992e+00 -3.865499019622802734e+00 -6.925259232521057129e-01 4.968450069427490234e+00 1.008508443832397461e+00 8.265177011489868164e-01 -2.017032504081726074e-01 -5.457943677902221680e-01 -3.310653924942016602e+00 3.583252429962158203e-01 2.977875471115112305e+00 3.226568222045898438e+00 2.173269033432006836e+00 -1.230992898344993591e-01 -4.607003927230834961e-01 -7.763966917991638184e-01 2.410688638687133789e+00 -3.637581825256347656e+00 1.125606298446655273e+00 -3.192992925643920898e+00 7.249202132225036621e-01 -2.260203361511230469e-01 -1.676236629486083984e+00 -2.569500207901000977e+00 -1.905028462409973145e+00 -7.477508783340454102e-01 1.486697435379028320e+00 -2.262787818908691406e+00 -1.166614770889282227e+00 1.374180793762207031e+00 2.294769763946533203e+00 9.774134159088134766e-01 1.152839899063110352e+00 -5.829485893249511719e+00 -2.287793636322021484e+00
6.157433986663818359e-01 -3.445344686508178711e+00 4.087277412414550781e+00 -5.565058588981628418e-01 -6.894314765930175781e+00 -2.881244659423828125e+00 5.608562231063842773e-01 2.485202103853225708e-01 2.993038177490234375e+00 6.908432841300964355e-01 1.723491191864013672e+00 -1.186072111129760742e+00 1.438226252794265747e-01 2.110526323318481445e+00 -8.362247943878173828e-01 1.536650896072387695e+00 -5.647780299186706543e-01 1.539810895919799805e+00 2.267518758773803711e+00 7.914408206939697266e+00 2.180277824401855469e+00 -1.510187029838562012e+00 1.200467824935913086e+00 -1.768359422683715820e+00 2.683073282241821289e+00 4.942829012870788574e-01 1.964042425155639648e+00 3.804521560668945312e+00 -1.042205452919006348e+00 -1.502431154251098633e+00 -7.526378631591796875e-01 -1.962789297103881836e+00 3.914434194564819336e+00 2.585856437683105469e+00 2.369930267333984375e+00 1.103071093559265137e+00 -4.494734287261962891e+00 3.966450214385986328e+00 -2.059268474578857422e+00 6.421304345130920410e-01 -2.704529762268066406e+00 -6.388100981712341309e-01 -2.827460765838623047e+00 9.659238159656524658e-02 6.122395396232604980e-01 -8.916979432106018066e-01 -8.859972357749938965e-01 -1.706289649009704590e+00 1.070621371269226074e+00 1.852774620056152344e+00
3.958343029022216797e+00 5.684300422668457031e+00 6.866427063941955566e-01 -7.047569751739501953e-01 1.966480910778045654e-01 7.115713953971862793e-01 -3.119448661804199219e+00 5.426879882812500000e+00 -7.005721330642700195e-01 2.041969537734985352e+00 -4.147733211517333984e+00 3.068234443664550781e+00 -1.429595708847045898e+00 -1.701871156692504883e+00 4.062218189239501953e+00 9.840593934059143066e-01 8.448083996772766113e-01 4.484031677246093750e+00 -2.778179645538330078e+00 -1.991059064865112305e+00 -1.440016627311706543e+00 1.488995552062988281e+00 4.228012084960937500e+00 -4.651014804840087891e-01 -2.922922372817993164e+00 -3.105039358139038086e+00 -2.177463054656982422e+00 1.717425286769866943e-01 -2.492069244384765625e+00 1.671982258558273315e-01 4.800746142864227295e-01 -2.534912824630737305e+00 2.369405984878540039e+00 1.876341581344604492e+00 2.926826953887939453e+00 2.329642176628112793e-01 1.469250082969665527e+00 -1.886581301689147949e+00 8.051341772079467773e-02 1.637671589851379395e+00 2.123190641403198242e+00 -1.635625720024108887e+00 2.657605886459350586e+00 4.245881080627441406e+00 -3.298295736312866211e+00 1.617816090583801270e+00 -3.148499429225921631e-01 2.607741355895996094e+00 1.003438949584960938e+00 5.758256092667579651e-02
-9.604769200086593628e-02 6.959158897399902344e+00 1.989943623542785645e+00 -3.064006805419921875e+00 -4.912057816982269287e-01 -3.276037931442260742e+00 -2.869139909744262695e+00 3.353928804397583008e+00 -1.801797747611999512e+00 -1.258183598518371582e+00 -7.395788431167602539e-01 7.580050230026245117e-01 2.100529968738555908e-01 1.581974923610687256e-01 2.592790603637695312e+00 -2.991403341293334961e+00 -2.870064377784729004e-01 2.761777400970458984e+00 -2.262892484664916992e+00 -1.300664544105529785e+00 1.583222866058349609e+00 1.567438602447509766e+00 4.022958755493164062e+00 2.474204301834106445e+00 -1.334634542465209961e+00 -1.914339065551757812e-01 -6.313585042953491211e-01 8.097089529037475586e-01 -3.509595870971679688e+00 5.358521938323974609e+00 -1.360663890838623047e+00 -5.118082523345947266e+00 -1.734681010246276855e+00 -4.026918411254882812e+00 -1.844182729721069336e+00 3.675591468811035156e+00 -1.104995965957641602e+00 -2.051985263824462891e+00 -1.396151304244995117e+00 1.326931267976760864e-01 2.117295265197753906e+00 -1.840261459350585938e+00 -6.541576981544494629e-01 3.592971324920654297e+00 2.777338981628417969e+00 4.181374073028564453e+00 5.205882340669631958e-02 2.377929687500000000e+00 -2.872294664382934570e+00 5.408479571342468262e-01
-4.034498035907745361e-01 4.489001035690307617e-01 -1.203925371170043945e+00 1.468955039978027344e+00 -3.752008438110351562e+00 -1.773533701896667480e+00 2.407917499542236328e+00 -1.269680619239807129e+00 -9.178158640861511230e-01 1.246177911758422852e+00 -1.652741789817810059e+00 -3.045762300491333008e+00 -3.888503074645996094e+00 -5.300569057464599609e+00 1.985071182250976562e+00 3.969584226608276367e+00 -1.306198716163635254e+00 -2.969472169876098633e+00 -2.108096599578857422e+00 -2.346319675445556641e+00 8.026164174079895020e-01 -3.177478551864624023e+00 -2.918092012405395508e+00 -5.535271763801574707e-01 6.370726227760314941e-01 -2.572815179824829102e+00 1.218894362449645996e+00 -2.532753944396972656e+00 -3.069671154022216797e+00 3.003284037113189697e-01 3.959662616252899170e-01 1.147331476211547852e+00 1.755043387413024902e+00 -2.564673423767089844e+00 -3.303209841251373291e-01 -1.990193963050842285e+00 4.446271359920501709e-01 6.936990618705749512e-01 4.996370792388916016e+00 -1.889109134674072266e+00 2.606198787689208984e+00 -4.154380798339843750e+00 -2.820436954498291016e-01 -3.353145360946655273e+00 3.255762755870819092e-01 1.553921997547149658e-01 -1.432900279760360718e-01 3.301067113876342773e+00 -9.206565022468566895e-01 -1.924708843231201172e+00
4.140342235565185547e+00 2.539719104766845703e+00 1.596178412437438965e-01 -1.357605934143066406e+00 -2.125707864761352539e-01 1.406870126724243164e+00 -4.201354503631591797e+00 4.611100673675537109e+00 2.014070034027099609e+00 7.324826717376708984e-01 -3.535929918289184570e+00 6.549755930900573730e-01 -2.385618448257446289e+00 2.914786338806152344e-01 3.480962514877319336e+00 -1.472723126411437988e+00 -5.214320421218872070e-01 1.327533088624477386e-02 -4.039385318756103516e+00 -1.488770693540573120e-01 -2.999171972274780273e+00 4.533957958221435547e+00 1.941512107849121094e+00 -2.166464328765869141e+00 -2.555085659027099609e+00 1.137722849845886230e+00 6.035919189453125000e-01 4.725689888000488281e+00 6.032204627990722656e-01 -3.079334735870361328e+00 -3.419793844223022461e+00 -6.183850288391113281e+00 2.291678428649902344e+00 3.041685223579406738e-01 1.254119753837585449e+00 4.844241619110107422e+00 2.334499835968017578e+00 3.434038162231445312e-01 2.925930500030517578e+00 2.247200489044189453e+00 1.524775505065917969e+00 3.083389520645141602e+00 -1.034393191337585449e+00 7.899751663208007812e-01 -1.866703510284423828e+00 2.949068069458007812e+00 -2.123274087905883789e+00 -2.587191343307495117e+00 2.738556385040283203e+00 -6.361097097396850586e-01
-2.833582162857055664e+00 2.834553122520446777e-01 3.262339353561401367e+00 6.478531360626220703e-01 -5.151401996612548828e+00 2.440386116504669189e-01 -2.256114721298217773e+00 -6.014072299003601074e-01 1.481746912002563477e+00 -1.488555312156677246e+00 1.399189472198486328e+00 2.891619443893432617e+00 3.608685255050659180e+00 -3.143841624259948730e-01 -3.897386550903320312e+00 -7.218635678291320801e-01 1.229196071624755859e+00 -2.722005173563957214e-02 3.493852376937866211e+00 7.518537640571594238e-01 -3.268019676208496094e+00 6.633105874061584473e-01 1.938338041305541992e+00 -8.055111765861511230e-01 1.348330140113830566e+00 -4.683034420013427734e-01 -9.318442940711975098e-01 -1.143234133720397949e+00 -4.912605285644531250e-01 -4.240684509277343750e+00 1.672619938850402832e+00 -4.612203687429428101e-03 -1.041530966758728027e+00 7.342144846916198730e-01 1.413340330123901367e+00 -9.791714549064636230e-01 2.088265493512153625e-02 -5.569365620613098145e-01 -2.933166742324829102e+00 -2.158586025238037109e+00 1.488332390785217285e+00 6.842532753944396973e-01 2.009020447731018066e-01 -2.009335279464721680e+00 1.608184427022933960e-01 -1.443924069404602051e+00 2.262778952717781067e-02 -9.595884084701538086e-01 2.684522867202758789e-01 8.238964676856994629e-01
-8.020750880241394043e-01 -1.400932669639587402e+00 2.407542228698730469e+00 -3.790216922760009766e+00 -1.141317963600158691e+00 1.092319265007972717e-01 -2.586723089218139648e+00 3.076331317424774170e-01 2.775520384311676025e-01 1.045835167169570923e-01 -1.018611669540405273e+00 -1.530251622200012207e+00 3.031327486038208008e+00 2.816531896591186523e+00 -1.746629953384399414e+00 1.070662617683410645e+00 2.196288824081420898e+00 9.161421656608581543e-01 -2.524902105331420898e+00 3.020753860473632812e+00 1.996492147445678711e-01 -7.649044990539550781e-01 -6.328841447830200195e-01 2.326065301895141602e+00 -1.373430609703063965e+00 -7.181152701377868652e-01 -2.536387205123901367e+00 2.986254930496215820e+00 -1.819888234138488770e+00 1.523077964782714844e+00 1.034416317939758301e+00 -2.368539333343505859e+00 -1.911646008491516113e+00 1.847718954086303711e+00 1.669605255126953125e+00 2.709313869476318359e+00 -2.237423419952392578e+00 3.179433345794677734e+00 3.742150783538818359e+00 1.901855945587158203e+00 -3.756563901901245117e+00 5.817424058914184570e-01 2.956580638885498047e+00 -5.666500329971313477e-01 -1.169501304626464844e+00 -3.720140457153320312e+00 -1.917850613594055176e+00 2.820106744766235352e-01 7.549641132354736328e-01 3.141258239746093750e+00
-2.894123792648315430e-01 -8.931738734245300293e-01 -3.758585214614868164e+00 -2.319419145584106445e+00 -2.048298358917236328e+00 -1.744521260261535645e+00 3.110338926315307617e+00 8.250846862792968750e-01 -2.186343908309936523e+00 -3.444026410579681396e-01 -2.180448323488235474e-01 1.053934574127197266e+00 1.142775341868400574e-01 -7.699758410453796387e-01 7.084283232688903809e-02 -2.295755386352539062e+00 -6.509799957275390625e-01 -8.772315382957458496e-01 -1.423138618469238281e+00 -4.366316795349121094e+00 3.074538409709930420e-01 1.576469182968139648e+00 1.389354228973388672e+00 3.324338436126708984e+00 -2.369100570678710938e+00 -8.099933862686157227e-01 -4.728990197181701660e-01 -2.185223817825317383e+00 -2.038949489593505859e+00 -1.469071388244628906e+00 1.447073101997375488e+00 2.107711076736450195e+00 -1.199344277381896973e+00 -8.850448131561279297e-01 2.352311372756958008e+00 -2.596673965454101562e-01 -1.078782796859741211e+00 5.628861859440803528e-02 -1.718436837196350098e+00 -1.027225255966186523e+00 3.561979532241821289e+00 3.198979616165161133e+00 6.826878190040588379e-01 2.838865041732788086e+00 -2.821398735046386719e+00 -5.164964795112609863e-01 3.157074376940727234e-02 2.927495956420898438e+00 1.674735188484191895e+00 -2.810119152069091797e+00
3.244874000549316406e+00 1.892934739589691162e-01 2.250234127044677734e+00 9.076651334762573242e-01 5.541180133819580078e+00 3.040981769561767578e+00 -4.755740642547607422e+00 3.437603473663330078e+00 6.414732336997985840e-01 -1.076887488365173340e+00 7.489373683929443359e-01 4.101255893707275391e+00 -1.144712686538696289e+00 -2.549017429351806641e+00 -2.299469470977783203e+00 1.434769988059997559e+00 6.664443969726562500e+00 1.878797531127929688e+00 -3.478862047195434570e-01 -5.238783359527587891e+00 -2.778948783874511719e+00 -3.424862921237945557e-01 -3.647546768188476562e-01 -3.316680908203125000e+00 -3.356399834156036377e-01 -2.059806346893310547e+00 -1.213770627975463867e+00 -1.564095377922058105e+00 1.121345400810241699e+00 -1.840328335762023926e+00 -6.753248572349548340e-01 -1.384933829307556152e+00 -2.327164649963378906e+00 -1.591244220733642578e+00 3.655692815780639648e+00 2.517768383026123047e+00 -2.087958335876464844e+00 1.371286630630493164e+00 4.619862079620361328e+00 2.781561374664306641e+00 -8.263552784919738770e-01 4.650433659553527832e-01 4.983775615692138672e+00 -3.696768045425415039e+00 -2.365304678678512573e-01 6.570129394531250000e-01 5.174160003662109375e+00 2.274341583251953125e+00 -8.327165842056274414e-01 7.812135219573974609e-01
-1.588417768478393555e+00 -4.096013069152832031e+00 1.637849926948547363e+00 1.917099952697753906e+00 -3.713948965072631836e+00 1.137636303901672363e+00 -2.123894989490509033e-01 -2.424127578735351562e+00 -1.744667530059814453e+00 4.304344058036804199e-01 -1.269956469535827637e+00 -4.744199752807617188e+00 1.413993477821350098e+00 4.887834548950195312e+00 -1.784211099147796631e-01 -1.468536972999572754e+00 3.952808618545532227e+00 2.175315856933593750e+00 2.555712223052978516e+00 3.450148582458496094e+00 2.927478551864624023e+00 -6.276558041572570801e-01 3.012474298477172852e+00 -1.775930762290954590e+00 -1.101908922195434570e+00 8.245257660746574402e-03 -7.921398282051086426e-01 -1.726647764444351196e-01 -9.276550412178039551e-01 2.269477128982543945e+00 -1.098369956016540527e+00 5.743144750595092773e-01 1.835807323455810547e+00 3.834960460662841797e+00 5.787134170532226562e-01 2.146088123321533203e+00 -1.550511002540588379e+00 4.100372314453125000e+00 1.573124825954437256e-01 1.255410075187683105e+00 -2.184434413909912109e+00 1.543352305889129639e-01 -5.317316532135009766e+00 -1.833535283803939819e-01 1.658640861511230469e+00 -5.026820659637451172e+00 -8.615709543228149414e-01 -1.259447574615478516e+00 2.715935468673706055e+00 1.764060616493225098e+00
-5.367460250854492188e-01 -3.668321847915649414e+00 -1.328578114509582520e+00 2.468268156051635742e+00 -1.928629994392395020e+00 2.663190603256225586e+00 -1.380600571632385254e+00 -7.912765145301818848e-01 -4.221047878265380859e+00 2.958982884883880615e-01 -2.949323177337646484e+00 -1.656598329544067383e+00 8.406518101692199707e-01 -5.509587377309799194e-02 -3.730248808860778809e-01 -2.115574121475219727e+00 1.756118178367614746e+00 -5.319897651672363281e+00 -9.378046393394470215e-01 2.729466676712036133e+00 -1.856537103652954102e+00 -1.142630934715270996e+00 -5.252532958984375000e+00 1.427022933959960938e+00 8.960636258125305176e-01 1.408311009407043457e+00 -5.956120491027832031e-01 4.815385043621063232e-01 2.803484439849853516e+00 4.167916178703308105e-01 2.793436765670776367e+00 3.338218450546264648e+00 -4.103713929653167725e-01 -2.223224751651287079e-02 2.714596748352050781e+00 -6.293988704681396484e+00 -9.472495913505554199e-01 1.758864402770996094e+00 -1.851033210754394531e+00 -1.877482771873474121e+00 -1.283238768577575684e+00 3.258543014526367188e+00 -1.053578138351440430e+00 -2.697484195232391357e-01 2.033835649490356445e+00 1.142263054847717285e+00 5.780547261238098145e-01 -6.918040513992309570e-01 -2.124738544225692749e-01 -2.214069604873657227e+00
-4.741436481475830078e+00 3.818828165531158447e-01 7.578135132789611816e-01 -1.587827444076538086e+00 -5.782111883163452148e-01 -1.941844463348388672e+00 -3.980204582214355469e+00 -1.180882811546325684e+00 8.196278661489486694e-02 -7.954539060592651367e-01 -7.817844748497009277e-01 2.543605566024780273e+00 8.427071571350097656e-01 -1.012785077095031738e+00 2.136617422103881836e+00 2.333866357803344727e+00 2.016541481018066406e+00 2.086291551589965820e+00 -3.650552034378051758e+00 7.111290931701660156e+00 -3.036377131938934326e-01 1.151356697082519531e+00 2.279896736145019531e+00 3.247514665126800537e-01 4.349438846111297607e-01 -8.837754279375076294e-02 3.289558410644531250e+00 4.767901897430419922e-01 2.621364355087280273e+00 -1.436542868614196777e-01 5.414561629295349121e-01 -8.943355083465576172e-02 3.728158235549926758e+00 -2.477782726287841797e+00 6.950958371162414551e-01 -1.466527819633483887e+00 2.929587602615356445e+00 1.327484011650085449e+00 -3.228924423456192017e-02 -2.627901732921600342e-01 1.374809145927429199e+00 3.598873853683471680e+00 7.373553514480590820e-01 -1.077547073364257812e+00 -2.463574171066284180e+00 -3.327264308929443359e+00 1.632125973701477051e-01 -1.999169588088989258e+00 1.965631604194641113e+00 -1.643527299165725708e-02
1.096697926521301270e+00 3.238022565841674805e+00 1.805527508258819580e-01 -1.596369147300720215e-01 -1.536244630813598633e+00 8.702629804611206055e-01 1.854002952575683594e+00 -2.373543977737426758e+00 1.799298524856567383e-01 2.442180871963500977e+00 1.771016716957092285e+00 4.215506553649902344e+00 -1.531122446060180664e+00 -1.950368523597717285e+00 1.772738933563232422e+00 -8.471559286117553711e-01 -1.527934908866882324e+00 -1.848700642585754395e+00 1.702037453651428223e+00 -3.104525566101074219e+00 -2.431196928024291992e+00 -3.098882198333740234e+00 -5.059739589691162109e+00 -4.967088103294372559e-01 -2.086408138275146484e+00 7.732246816158294678e-02 -8.934255838394165039e-01 -9.447755813598632812e-01 2.172465562820434570e+00 3.006333112716674805e-01 -1.974222540855407715e+00 2.158744335174560547e+00 -4.554686069488525391e+00 -2.691855192184448242e+00 -2.775017917156219482e-01 1.040101289749145508e+00 5.180821418762207031e+00 2.018097162246704102e+00 -2.039870977401733398e+00 3.887492418289184570e+00 1.411087989807128906e+00 2.565708160400390625e+00 3.102975368499755859e+00 -1.666888475418090820e+00 5.611171722412109375e-01 4.792195796966552734e+00 2.886705636978149414e+00 -1.122005462646484375e+00 -5.499639511108398438e+00 -3.445933818817138672e+00
4.513511061668395996e-01 5.131841659545898438e+00 3.428110122680664062e+00 -1.252469062805175781e+00 1.193682789802551270e+00 1.371319651603698730e+00 -8.038654923439025879e-02 -1.779196619987487793e+00 7.464410662651062012e-01 2.820087432861328125e+00 4.504368305206298828e+00 1.532138109207153320e+00 -1.388673901557922363e+00 3.311093449592590332e-01 9.319996237754821777e-01 -1.451911330223083496e+00 -2.263677120208740234e+00 1.548197627067565918e+00 3.444887876510620117e+00 3.620328187942504883e+00 4.838581383228302002e-01 4.269622802734375000e+00 -1.003998041152954102e+00 -1.171864390373229980e+00 -3.034798622131347656e+00 1.860788106918334961e+00 1.482716560363769531e+00 2.302319765090942383e+00 1.112273037433624268e-01 -1.237961173057556152e+00 8.487026691436767578e-01 5.991537570953369141e+00 -1.630042120814323425e-02 1.607702374458312988e+00 2.065480947494506836e+00 3.014953374862670898e+00 1.219057440757751465e+00 3.856670141220092773e+00 1.770172476768493652e+00 5.789275646209716797e+00 3.264949098229408264e-02 -1.668698906898498535e+00 -3.103408098220825195e+00 2.625768184661865234e+00 1.108787536621093750e+00 -1.013681218028068542e-01 -1.165043115615844727e+00 -2.444815874099731445e+00 5.599974632263183594e+00 -7.055824995040893555e-01
-9.781013727188110352e-01 -4.744266986846923828e+00 4.272153079509735107e-01 3.429556846618652344e+00 3.004781007766723633e+00 3.588026762008666992e-02 1.259143352508544922e+00 -1.736462235450744629e+00 -4.165169715881347656e+00 -1.289911746978759766e+00 -1.723200201988220215e+00 -2.945794105529785156e+00 2.093621253967285156e+00 1.908114403486251831e-01 -1.247625231742858887e+00 3.779500961303710938e+00 -2.002846747636795044e-01 9.984508752822875977e-01 9.540669918060302734e-01 4.281313419342041016e+00 -2.275857210159301758e+00 -7.274245619773864746e-01 2.277453660964965820e+00 1.674286127090454102e+00 6.918465495109558105e-01 -1.674592375755310059e+00 3.918771266937255859e+00 -9.603743553161621094e-01 1.811229348182678223e+00 -6.004210114479064941e-01 1.142374277114868164e+00 7.506788730621337891e+00 -1.999236084520816803e-02 -6.366534829139709473e-01 1.190907955169677734e+00 2.453655600547790527e-01 -1.010285139083862305e+00 2.497890233993530273e+00 -1.855204820632934570e+00 -4.548207759857177734e+00 -1.710372090339660645e+00 1.782616972923278809e+00 -6.013849973678588867e-01 -5.336764812469482422e+00 3.948853015899658203e-01 -2.989516735076904297e+00 1.805346012115478516e+00 7.242008447647094727e-01 -5.601463794708251953e+00 -7.646707296371459961e-01
-3.352504491806030273e+00 -2.679782509803771973e-01 2.125166893005371094e+00 -1.394960284233093262e+00 -3.870019435882568359e+00 1.782885313034057617e+00 -4.562404751777648926e-01 -1.727040767669677734e+00 -2.177735090255737305e+00 6.587108373641967773e-01 -4.332699298858642578e+00 1.310414433479309082e+00 -2.503165304660797119e-01 -4.024091362953186035e-01 2.950502038002014160e-01 9.886806011199951172e-01 3.615287303924560547e+00 -2.845383405685424805e+00 5.385553359985351562e+00 -1.899803996086120605e+00 -7.771397233009338379e-01 -3.292623281478881836e+00 -4.174751281738281250e+00 3.659527003765106201e-01 7.856081724166870117e-01 -6.986653804779052734e-01 2.217990159988403320e-01 1.554701924324035645e+00 -2.979181766510009766e+00 -1.778451442718505859e+00 -2.719602346420288086e+00 -4.148481845855712891e+00 8.437933325767517090e-01 -1.790904283523559570e+00 -1.112269043922424316e+00 -1.059412956237792969e+00 -2.694541931152343750e+00 1.448102951049804688e+00 -1.699594110250473022e-01 1.531784772872924805e+00 -1.669914245605468750e+00 1.539786905050277710e-01 2.563679695129394531e+00 -2.404737234115600586e+00 -1.633561611175537109e+00 -6.060633659362792969e-01 9.034963250160217285e-01 -3.004007935523986816e-01 1.630339741706848145e+00 1.509726047515869141e+00
-3.963576257228851318e-01 2.261286258697509766e+00 -1.179542899131774902e+00 -1.312146544456481934e+00 -3.091317176818847656e+00 -1.238019227981567383e+00 8.831477165222167969e-02 -4.623889923095703125e+00 -1.192153811454772949e+00 -2.751640319824218750e+00 8.798989653587341309e-01 -4.730200171470642090e-01 -5.383341312408447266e-01 1.295220494270324707e+00 5.205289721488952637e-01 4.963998794555664062e+00 -2.016011476516723633e+00 6.554176807403564453e+00 1.021259784698486328e+00 5.235853195190429688e+00 9.096969366073608398e-01 1.408368945121765137e+00 4.065808773040771484e+00 6.059218645095825195e-01 1.015179872512817383e+00 7.414186596870422363e-01 1.855473756790161133e+00 -3.465649366378784180e+00 6.084187626838684082e-01 -5.959554314613342285e-01 -1.397972226142883301e+00 9.060153365135192871e-01 -7.189579010009765625e-01 -1.721267104148864746e+00 -2.052761316299438477e+00 3.368625879287719727e+00 2.056897878646850586e+00 2.073028326034545898e+00 4.033324718475341797e+00 2.554776668548583984e+00 -8.877069354057312012e-01 9.868722558021545410e-01 8.492895364761352539e-01 1.695751786231994629e+00 -3.987222433090209961e+00 -5.596239566802978516e+00 4.726577103137969971e-01 -8.519659042358398438e-01 -1.946910500526428223e+00 9.225140810012817383e-01
3.587862491607666016e+00 3.574559926986694336e+00 -2.757450819015502930e+00 -1.309067606925964355e+00 -4.697451114654541016e+00 -3.523654639720916748e-01 -3.996833264827728271e-01 2.535709142684936523e+00 3.808409348130226135e-02 -1.781137108802795410e+00 -6.444783806800842285e-01 2.609126567840576172e+00 -1.171738266944885254e+00 -3.597532272338867188e+00 1.071662545204162598e+00 1.582632780075073242e+00 3.672960281372070312e+00 2.839389562606811523e+00 -1.677349686622619629e+00 4.571492075920104980e-01 9.881655573844909668e-01 3.197335958480834961e+00 -4.332402944564819336e-01 -1.212596178054809570e+00 1.568948268890380859e+00 -2.259358406066894531e+00 -3.200938940048217773e+00 5.355659961700439453e+00 -5.773096561431884766e+00 1.620532512664794922e+00 3.221436977386474609e+00 -3.597221136093139648e+00 -1.855220794677734375e+00 3.948353052139282227e+00 1.322262048721313477e+00 5.188344478607177734e+00 2.368714809417724609e+00 1.805650949478149414e+00 2.419981718063354492e+00 8.324766159057617188e-02 4.637171745300292969e+00 3.341408729553222656e+00 1.900197416543960571e-01 2.842336654663085938e+00 -1.302085518836975098e+00 -3.117704868316650391e+00 1.664459347724914551e+00 6.029085516929626465e-01 -3.506281971931457520e-01 7.203781604766845703e-01
2.280471801757812500e+00 2.287599086761474609e+00 -1.469448328018188477e+00 -2.988978385925292969e+00 4.885106086730957031e+00 -1.944105982780456543e+00 3.767338037490844727e+00 2.249811440706253052e-01 -1.097420975565910339e-01 4.832840859889984131e-01 -5.227148532867431641e-01 4.401686668395996094e+00 -3.131833970546722412e-01 -5.448534488677978516e+00 1.508769631385803223e+00 -3.939718723297119141e+00 4.110400199890136719e+00 -1.438091874122619629e+00 8.644586801528930664e-01 -2.734385251998901367e+00 -1.473984122276306152e+00 -4.859105587005615234e+00 -3.743738889694213867e+00 -1.310133218765258789e+00 2.196603298187255859e+00 -2.562825202941894531e+00 -8.651627302169799805e-01 -1.345122694969177246e+00 -4.890053272247314453e+00 -2.888261556625366211e+00 -3.810470998287200928e-01 -3.115211725234985352e+00 -4.960960388183593750e+00 -1.525446295738220215e+00 -3.544769585132598877e-01 -5.137231826782226562e+00 2.339158535003662109e+00 8.933902978897094727e-01 -3.346472263336181641e+00 3.602711915969848633e+00 -2.167221784591674805e+00 -3.848800182342529297e+00 3.133385658264160156e+00 -2.011121273040771484e+00 1.973662734031677246e+00 4.750204086303710938e+00 -6.336217522621154785e-01 -2.701121568679809570e+00 -5.632453441619873047e+00 -4.566130638122558594e+00
-4.317623138427734375e+00 -1.563998341560363770e+00 5.461526870727539062e+00 5.643160343170166016e-01 -7.542419433593750000e-01 4.326011180877685547e+00 -2.068970918655395508e+00 -1.074712872505187988e+00 -6.867462396621704102e-01 2.845337867736816406e+00 -1.871203303337097168e+00 1.747855186462402344e+00 -1.461186647415161133e+00 9.864482879638671875e-01 -1.097973465919494629e+00 -3.456084012985229492e+00 -1.640679121017456055e+00 -1.400379538536071777e+00 1.688397884368896484e+00 -2.826856672763824463e-01 -3.234492778778076172e+00 1.743909239768981934e+00 4.360655546188354492e-01 -3.239549636840820312e+00 2.790198802947998047e+00 -1.362096190452575684e+00 3.967874944210052490e-01 1.386800527572631836e+00 3.177734136581420898e+00 -3.232683837413787842e-01 -5.037147402763366699e-01 1.670960187911987305e+00 -1.531566739082336426e+00 1.629327535629272461e+00 7.322880625724792480e-01 -2.997614383697509766e+00 -1.163804888725280762e+00 -3.256626844406127930e+00 1.680671095848083496e+00 -1.899383664131164551e+00 3.650615692138671875e+00 1.057724356651306152e+00 -2.847378015518188477e+00 -1.909240245819091797e+00 2.826435089111328125e+00 -1.927139282226562500e+00 1.420363187789916992e+00 -4.626670777797698975e-01 -4.671267032623291016e+00 -2.323805093765258789e+00
-3.727810084819793701e-01 -2.188597023487091064e-01 -2.832319021224975586e+00 3.624925136566162109e+00 -1.900974869728088379e+00 1.578552007675170898e+00 -4.416037559509277344e+00 1.501309871673583984e+00 2.384918928146362305e+00 -1.126022219657897949e+00 3.255082070827484131e-01 -3.209016084671020508e+00 6.163109779357910156e+00 1.068293690681457520e+00 2.061104536056518555e+00 2.435688257217407227e+00 -2.929679870605468750e+00 1.465622901916503906e+00 -7.791660428047180176e-01 2.644273996353149414e+00 -9.324993491172790527e-01 -1.518499612808227539e+00 4.461081027984619141e+00 -2.527645349502563477e+00 -2.386164188385009766e+00 1.939445972442626953e+00 3.357347965240478516e+00 1.784561634063720703e+00 -2.161986112594604492e+00 -3.764011263847351074e-01 -1.624828457832336426e+00 -1.491060853004455566e-01 1.576770782470703125e+00 3.300719499588012695e+00 5.722262859344482422e-01 2.295764923095703125e+00 2.362360239028930664e+00 2.146118879318237305e+00 1.189724564552307129e+00 -2.064468860626220703e+00 -2.241899728775024414e+00 2.084407567977905273e+00 -2.551489830017089844e+00 -7.469775676727294922e-01 -3.524659395217895508e+00 -5.451895594596862793e-01 2.939980626106262207e-01 -1.513285875320434570e+00 5.110470294952392578e+00 -9.799904823303222656e-01
-9.746333211660385132e-02 3.016108989715576172e+00 -4.385052680969238281e+00 3.376153409481048584e-01 1.039889693260192871e+00 -1.594780445098876953e+00 -5.843214392662048340e-01 -6.758055090904235840e-02 -1.233517765998840332e+00 3.393859148025512695e+00 -1.421802639961242676e+00 5.003691911697387695e-01 1.821638822555541992e+00 2.180275440216064453e+00 1.554095149040222168e-01 8.905297517776489258e-01 2.997758626937866211e+00 1.066632866859436035e+00 4.471097290515899658e-01 -3.395908594131469727e+00 5.448549985885620117e-01 -2.135296344757080078e+00 -1.656091332435607910e+00 3.627031803131103516e+00 3.275634288787841797e+00 -4.373332023620605469e+00 -3.978973150253295898e+00 3.032948493957519531e+00 -1.978897809982299805e+00 -4.136383533477783203e+00 -2.112376689910888672e+00 -2.148167133331298828e+00 1.570497274398803711e+00 6.705999374389648438e-01 -1.684112071990966797e+00 -4.038033008575439453e+00 -2.162065267562866211e+00 8.858996629714965820e-01 -1.326629161834716797e+00 1.502692818641662598e+00 -2.705343246459960938e+00 -4.247853755950927734e+00 1.419044375419616699e+00 -1.506228595972061157e-01 -2.344033718109130859e+00 2.395871639251708984e+00 1.193817615509033203e+00 5.703577399253845215e-01 -1.177976489067077637e+00 7.691310644149780273e-01
1.420318245887756348e+00 -2.274813890457153320e+00 1.739159226417541504e+00 -3.244308710098266602e+00 -4.936939716339111328e+00 2.650561571121215820e+00 -7.504202127456665039e-01 7.960959076881408691e-01 -2.126060247421264648e+00 1.676875472068786621e+00 1.699696421623229980e+00 -2.137061119079589844e+00 -1.734875082969665527e+00 3.967103481292724609e+00 -5.645209550857543945e-01 -3.015444278717041016e+00 -3.607785403728485107e-01 -2.304260015487670898e+00 2.287804603576660156e+00 -2.523136854171752930e+00 9.349301457405090332e-01 1.163633942604064941e+00 8.134294152259826660e-01 1.102335333824157715e+00 -2.051575183868408203e+00 1.848713457584381104e-01 3.550392985343933105e-01 -1.955286264419555664e+00 1.728469491004943848e+00 9.964759647846221924e-02 2.621057987213134766e+00 6.000693798065185547e+00 -1.303278326988220215e+00 2.415256023406982422e+00 -3.214482367038726807e-01 -2.510420799255371094e+00 -1.816474944353103638e-01 -3.734547138214111328e+00 1.309742808341979980e+00 7.108267545700073242e-01 -3.035892009735107422e+00 5.091377258300781250e+00 -1.295553445816040039e+00 -1.678924918174743652e+00 1.583277344703674316e+00 -5.875894427299499512e-01 -5.196900367736816406e-01 4.586362361907958984e+00 -8.749194741249084473e-01 3.186691403388977051e-01
